tree
version=v4
num_class=1
num_tree_per_iteration=1
label_index=0
max_feature_idx=12
objective=binary sigmoid:1
feature_names=fever headache muscle_pain joint_pain rash nausea vomiting eye_pain abdominal_pain lymphadenopathy chills diarrhea fatigue
feature_infos=[0:1] [0:1] [0:1] [0:1] [0:1] [0:1] [0:1] [0:1] [0:1] [0:1] [0:1] [0:1] [0:1]
tree_sizes=781 531 738 554 355 354 528 540 360 364 573 354 358 451 362 364 360 365 364 364 365 365 365 363 364 343 365 344 342 344 344 344 344 344 344 344

Tree=0
num_leaves=6
num_cat=0
split_feature=12 11 3 3 1
split_gain=15.182 18.5059 29.8899 1.43049 1.02652
threshold=1.0000000180025095e-35 1.0000000180025095e-35 1.0000000180025095e-35 1.0000000180025095e-35 1.0000000180025095e-35
decision_type=2 2 2 2 2
left_child=1 2 4 -3 -1
right_child=-2 3 -4 -5 -6
leaf_value=-0.32601189546274495 -0.081240922734453241 -0.26029674147991855 -0.80208256862481264 0.0011494069024062803 -0.20228234406402401
leaf_weight=125.36448419094086 293.25456792116165 84.067948222160339 158.05757516622543 76.20194137096405 125.36448419094086
leaf_count=510 1193 342 643 310 510
internal_value=-0.260297 -0.35257 -0.47214 -0.104979 -0.260297
internal_weight=0 569.056 408.787 160.27 250.729
internal_count=3508 2315 1663 652 1020
is_linear=0
shrinkage=1


Tree=1
num_leaves=4
num_cat=0
split_feature=0 11 1
split_gain=7.14399 1.74285 1.24771
threshold=1.0000000180025095e-35 1.0000000180025095e-35 1.0000000180025095e-35
decision_type=2 2 2
left_child=-1 2 -2
right_child=1 -3 -4
leaf_value=0.12838431510611081 -0.15161500735838318 0 0
leaf_weight=302.79304160177708 196.62096509337425 151.57509732246399 196.1481665968895
leaf_count=1243 834 610 821
internal_value=0 -0.0561026 -0.0923378
internal_weight=0 544.344 392.769
internal_count=3508 2265 1655
is_linear=0
shrinkage=0.968725


Tree=2
num_leaves=6
num_cat=0
split_feature=9 0 7 0 7
split_gain=148.545 58.8402 49.1638 41.2292 0.391121
threshold=1.0000000180025095e-35 1.0000000180025095e-35 1.0000000180025095e-35 1.0000000180025095e-35 1.0000000180025095e-35
decision_type=2 2 2 2 2
left_child=3 -2 -3 4 -1
right_child=1 2 -4 -5 -6
leaf_value=0.065741127442674449 0 1.1884187808744631 0.06750137950528165 -0.54054539702198212 0
leaf_weight=85.171723425388336 142.63550721108913 129.05679482221603 77.19394813477993 331.35466593503952 77.719560787081718
leaf_count=347 579 536 318 1411 317
internal_value=0 0.482639 0.813482 -0.342944 0.00255583
internal_weight=0 348.886 206.251 494.246 162.891
internal_count=3508 1433 854 2075 664
is_linear=0
shrinkage=0.968725


Tree=3
num_leaves=4
num_cat=0
split_feature=2 3 3
split_gain=0.0983365 4.02969 0.773542
threshold=1.0000000180025095e-35 1.0000000180025095e-35 1.0000000180025095e-35
decision_type=2 2 2
left_child=2 -2 -1
right_child=1 -3 -4
leaf_value=0.055072871138521537 -0.12697860742378309 0.084556309358495382 0
leaf_weight=267.61724695563316 174.45766106247902 136.39593034982681 196.28816086053848
leaf_count=1209 756 610 933
internal_value=0 -0.00457518 0.0135977
internal_weight=0 310.854 463.905
internal_count=3508 1366 2142
is_linear=0
shrinkage=0.968725


Tree=4
num_leaves=2
num_cat=0
split_feature=7
split_gain=2.39067
threshold=1.0000000180025095e-35
decision_type=2
left_child=-1
right_child=-2
leaf_value=0.051316676320832512 -0.056548511807406596
leaf_weight=412.12818115949631 362.1869058907032
leaf_count=1901 1607
internal_value=0
internal_weight=0
internal_count=3508
is_linear=0
shrinkage=0.968725


Tree=5
num_leaves=2
num_cat=0
split_feature=8
split_gain=42.8298
threshold=1.0000000180025095e-35
decision_type=2
left_child=-1
right_child=-2
leaf_value=-0.18102496473999649 0.28806683713881126
leaf_weight=473.69284588098526 297.28842514753342
leaf_count=2210 1298
internal_value=0
internal_weight=0
internal_count=3508
is_linear=0
shrinkage=0.968725


Tree=6
num_leaves=4
num_cat=0
split_feature=4 7 7
split_gain=6.54509 5.14967 1.34382
threshold=1.0000000180025095e-35 1.0000000180025095e-35 1.0000000180025095e-35
decision_type=2 2 2
left_child=1 -1 -2
right_child=2 -3 -4
leaf_value=0 0 -0.18578323259244536 0.18901454556576788
leaf_weight=251.34455499053001 152.66558153927326 212.13082459568977 137.5448027998209
leaf_count=1223 678 1017 590
internal_value=0 -0.0732851 0.112192
internal_weight=0 463.475 290.21
internal_count=3508 2240 1268
is_linear=0
shrinkage=0.968725


Tree=7
num_leaves=4
num_cat=0
split_feature=12 11 11
split_gain=0.53005 0.116364 0.000894866
threshold=1.0000000180025095e-35 1.0000000180025095e-35 1.0000000180025095e-35
decision_type=2 2 2
left_child=1 -1 -2
right_child=2 -3 -4
leaf_value=0.041611596952711244 0 0 -0.021250061840370649
leaf_weight=318.58001577854156 148.86176976561546 149.17928841710091 128.02623680233955
leaf_count=1663 644 652 549
internal_value=0 0.0307547 -0.0143443
internal_weight=0 467.759 276.888
internal_count=3508 2315 1193
is_linear=0
shrinkage=0.968725


Tree=8
num_leaves=2
num_cat=0
split_feature=5
split_gain=0.00191517
threshold=1.0000000180025095e-35
decision_type=2
left_child=-1
right_child=-2
leaf_value=-0.001133461225456455 0.0019754028555829181
leaf_weight=428.00987875461578 319.65665535628796
leaf_count=2046 1462
internal_value=0
internal_weight=0
internal_count=3508
is_linear=0
shrinkage=0.968725


Tree=9
num_leaves=2
num_cat=0
split_feature=5
split_gain=1.86885e-06
threshold=1.0000000180025095e-35
decision_type=2
left_child=-1
right_child=-2
leaf_value=-3.5529064821705449e-05 6.1610616040403397e-05
leaf_weight=427.95168598741293 319.70948781073093
leaf_count=2046 1462
internal_value=0
internal_weight=0
internal_count=3508
is_linear=0
shrinkage=0.968725


Tree=10
num_leaves=4
num_cat=0
split_feature=4 12 12
split_gain=0.151256 9.93834 2.08407
threshold=1.0000000180025095e-35 1.0000000180025095e-35 1.0000000180025095e-35
decision_type=2 2 2
left_child=2 -2 -1
right_child=1 -3 -4
leaf_value=-0.070508568121341653 0.20973469004362638 -0.13641339832583799 0.056441620312368601
leaf_weight=314.39218437671661 156.38267159461975 136.16077956557274 140.72535215318203
leaf_count=1625 690 578 615
internal_value=0 0.0171861 -0.0110467
internal_weight=0 292.543 455.118
internal_count=3508 1268 2240
is_linear=0
shrinkage=0.968725


Tree=11
num_leaves=2
num_cat=0
split_feature=6
split_gain=1.20149
threshold=1.0000000180025095e-35
decision_type=2
left_child=-1
right_child=-2
leaf_value=-0.03621132959628031 0.041951690113989512
leaf_weight=400.78480170667171 342.046565964818
leaf_count=1945 1563
internal_value=0
internal_weight=0
internal_count=3508
is_linear=0
shrinkage=0.968725


Tree=12
num_leaves=2
num_cat=0
split_feature=11
split_gain=0.150712
threshold=1.0000000180025095e-35
decision_type=2
left_child=-1
right_child=-2
leaf_value=0.01055681764270339 -0.018022955562830806
leaf_weight=465.44924322515726 275.71427841484547
leaf_count=2307 1201
internal_value=0
internal_weight=0
internal_count=3508
is_linear=0
shrinkage=0.968725


Tree=13
num_leaves=3
num_cat=0
split_feature=2 11
split_gain=0.0137452 0.0129416
threshold=1.0000000180025095e-35 1.0000000180025095e-35
decision_type=2 2
left_child=-1 -2
right_child=1 -3
leaf_value=0.003432374399683683 0 -0.012207184608339928
leaf_weight=441.36927500367165 167.31771571189165 133.16594015061855
leaf_count=2142 784 582
internal_value=0 -0.00506184
internal_weight=0 300.484
internal_count=3508 1366
is_linear=0
shrinkage=0.968725


Tree=14
num_leaves=2
num_cat=0
split_feature=6
split_gain=0.00572296
threshold=1.0000000180025095e-35
decision_type=2
left_child=-1
right_child=-2
leaf_value=-0.0023538462298129865 0.0030358423935807153
leaf_weight=399.26243705302477 342.70014069974422
leaf_count=1945 1563
internal_value=0
internal_weight=0
internal_count=3508
is_linear=0
shrinkage=0.968725


Tree=15
num_leaves=2
num_cat=0
split_feature=2
split_gain=6.66284e-06
threshold=1.0000000180025095e-35
decision_type=2
left_child=-1
right_child=-2
leaf_value=7.9612166532185146e-05 -0.00010723750578221042
leaf_weight=441.42461062222719 300.4210861325264
leaf_count=2142 1366
internal_value=0
internal_weight=0
internal_count=3508
is_linear=0
shrinkage=0.968725


Tree=16
num_leaves=2
num_cat=0
split_feature=0
split_gain=0.0119524
threshold=1.0000000180025095e-35
decision_type=2
left_child=-1
right_child=-2
leaf_value=-0.0047287024553184327 0.003197453024741061
leaf_weight=299.25318945944309 442.59302267432213
leaf_count=1243 2265
internal_value=0
internal_weight=0
internal_count=3508
is_linear=0
shrinkage=0.968725


Tree=17
num_leaves=2
num_cat=0
split_feature=0
split_gain=1.16195e-05
threshold=1.0000000180025095e-35
decision_type=2
left_child=-1
right_child=-2
leaf_value=-0.00014797338005708471 9.9133295425329979e-05
leaf_weight=299.24265302717686 442.82557307928801
leaf_count=1243 2265
internal_value=0
internal_weight=0
internal_count=3508
is_linear=0
shrinkage=0.968725


Tree=18
num_leaves=2
num_cat=0
split_feature=0
split_gain=1.13487e-08
threshold=1.0000000180025095e-35
decision_type=2
left_child=-1
right_child=-2
leaf_value=-4.6224931747582514e-06 3.1000940227079365e-06
leaf_weight=299.24227480590343 442.8327654749155
leaf_count=1243 2265
internal_value=0
internal_weight=0
internal_count=3508
is_linear=0
shrinkage=0.968725


Tree=19
num_leaves=2
num_cat=0
split_feature=6
split_gain=6.92831e-05
threshold=1.0000000180025095e-35
decision_type=2
left_child=-1
right_child=-2
leaf_value=-0.00027425884812275111 0.00031946240986939348
leaf_weight=399.2879327237606 342.78732173889875
leaf_count=1945 1563
internal_value=0
internal_weight=0
internal_count=3508
is_linear=0
shrinkage=0.968725


Tree=20
num_leaves=2
num_cat=0
split_feature=6
split_gain=6.77434e-08
threshold=1.0000000180025095e-35
decision_type=2
left_child=-1
right_child=-2
leaf_value=-8.5816745426212899e-06 9.9837906010269764e-06
leaf_weight=399.27033314853907 342.79082153737545
leaf_count=1945 1563
internal_value=0
internal_weight=0
internal_count=3508
is_linear=0
shrinkage=0.968725


Tree=21
num_leaves=2
num_cat=0
split_feature=0
split_gain=2.00708e-07
threshold=1.0000000180025095e-35
decision_type=2
left_child=-1
right_child=-2
leaf_value=-1.9381039876450194e-05 1.3096207634809153e-05
leaf_weight=299.24022160470486 442.82049097120762
leaf_count=1243 2265
internal_value=0
internal_weight=0
internal_count=3508
is_linear=0
shrinkage=0.968725


Tree=22
num_leaves=2
num_cat=0
split_feature=6
split_gain=9.86687e-10
threshold=1.0000000180025095e-35
decision_type=2
left_child=-1
right_child=-2
leaf_value=-1.0315006854134946e-06 1.2090759254148454e-06
leaf_weight=399.27046725153923 342.79114353656769
leaf_count=1945 1563
internal_value=0
internal_weight=0
internal_count=3508
is_linear=0
shrinkage=0.968725


Tree=23
num_leaves=2
num_cat=0
split_feature=0
split_gain=2.41809e-10
threshold=1.0000000180025095e-35
decision_type=2
left_child=-1
right_child=-2
leaf_value=-6.772763868556053e-07 4.499655868703907e-07
leaf_weight=299.24016447365284 442.82139580696821
leaf_count=1243 2265
internal_value=0
internal_weight=0
internal_count=3508
is_linear=0
shrinkage=0.968725


Tree=24
num_leaves=2
num_cat=0
split_feature=6
split_gain=3.28905e-12
threshold=1.0000000180025095e-35
decision_type=2
left_child=-1
right_child=-2
leaf_value=-5.8114868763287699e-08 7.120627460040477e-08
leaf_weight=399.27042704820633 342.79116452485323
leaf_count=1945 1563
internal_value=0
internal_weight=0
internal_count=3508
is_linear=0
shrinkage=0.968725


Tree=25
num_leaves=2
num_cat=0
split_feature=6
split_gain=9.82009e-16
threshold=1.0000000180025095e-35
decision_type=2
left_child=-1
right_child=-2
leaf_value=0 1.6396212178106111e-09
leaf_weight=399.27042192965746 342.79116608202457
leaf_count=1945 1563
internal_value=0
internal_weight=0
internal_count=3508
is_linear=0
shrinkage=0.968725


Tree=26
num_leaves=2
num_cat=0
split_feature=0
split_gain=5.32846e-13
threshold=1.0000000180025095e-35
decision_type=2
left_child=-1
right_child=-2
leaf_value=-3.0532380985115842e-08 2.2343903001298571e-08
leaf_weight=299.24016290903091 442.82142489403486
leaf_count=1243 2265
internal_value=0
internal_weight=0
internal_count=3508
is_linear=0
shrinkage=0.968725


Tree=27
num_leaves=2
num_cat=0
split_feature=6
split_gain=1.61546e-14
threshold=1.0000000180025095e-35
decision_type=2
left_child=-1
right_child=-2
leaf_value=-6.1619069838313836e-09 0
leaf_weight=399.27042389661074 342.79116612672806
leaf_count=1945 1563
internal_value=0
internal_weight=0
internal_count=3508
is_linear=0
shrinkage=0.968725


Tree=28
num_leaves=2
num_cat=0
split_feature=6
split_gain=3.95783e-17
threshold=1.0000000180025095e-35
decision_type=2
left_child=-1
right_child=-2
leaf_value=-3.04996836782522e-10 0
leaf_weight=399.27042273432016 342.79116612672806
leaf_count=1945 1563
internal_value=0
internal_weight=0
internal_count=3508
is_linear=0
shrinkage=0.968725


Tree=29
num_leaves=2
num_cat=0
split_feature=6
split_gain=2.30366e-17
threshold=1.0000000180025095e-35
decision_type=2
left_child=-1
right_child=-2
leaf_value=-2.3268930387277123e-10 0
leaf_weight=399.27042274922132 342.79116612672806
leaf_count=1945 1563
internal_value=0
internal_weight=0
internal_count=3508
is_linear=0
shrinkage=0.968725


Tree=30
num_leaves=2
num_cat=0
split_feature=6
split_gain=1.05766e-19
threshold=1.0000000180025095e-35
decision_type=2
left_child=-1
right_child=-2
leaf_value=-1.5766705177667169e-11 0
leaf_weight=399.27042274922132 342.79116612672806
leaf_count=1945 1563
internal_value=0
internal_weight=0
internal_count=3508
is_linear=0
shrinkage=0.968725


Tree=31
num_leaves=2
num_cat=0
split_feature=6
split_gain=1.05766e-19
threshold=1.0000000180025095e-35
decision_type=2
left_child=-1
right_child=-2
leaf_value=-1.5766705177667169e-11 0
leaf_weight=399.27042274922132 342.79116612672806
leaf_count=1945 1563
internal_value=0
internal_weight=0
internal_count=3508
is_linear=0
shrinkage=0.968725


Tree=32
num_leaves=2
num_cat=0
split_feature=6
split_gain=1.05766e-19
threshold=1.0000000180025095e-35
decision_type=2
left_child=-1
right_child=-2
leaf_value=-1.5766705177667169e-11 0
leaf_weight=399.27042274922132 342.79116612672806
leaf_count=1945 1563
internal_value=0
internal_weight=0
internal_count=3508
is_linear=0
shrinkage=0.968725


Tree=33
num_leaves=2
num_cat=0
split_feature=6
split_gain=1.05766e-19
threshold=1.0000000180025095e-35
decision_type=2
left_child=-1
right_child=-2
leaf_value=-1.5766705177667169e-11 0
leaf_weight=399.27042274922132 342.79116612672806
leaf_count=1945 1563
internal_value=0
internal_weight=0
internal_count=3508
is_linear=0
shrinkage=0.968725


Tree=34
num_leaves=2
num_cat=0
split_feature=6
split_gain=1.05766e-19
threshold=1.0000000180025095e-35
decision_type=2
left_child=-1
right_child=-2
leaf_value=-1.5766705177667169e-11 0
leaf_weight=399.27042274922132 342.79116612672806
leaf_count=1945 1563
internal_value=0
internal_weight=0
internal_count=3508
is_linear=0
shrinkage=0.968725


Tree=35
num_leaves=2
num_cat=0
split_feature=6
split_gain=1.05766e-19
threshold=1.0000000180025095e-35
decision_type=2
left_child=-1
right_child=-2
leaf_value=-1.5766705177667169e-11 0
leaf_weight=399.27042274922132 342.79116612672806
leaf_count=1945 1563
internal_value=0
internal_weight=0
internal_count=3508
is_linear=0
shrinkage=0.968725


end of trees

feature_importances:
vomiting=16
fever=9
diarrhea=6
eye_pain=5
joint_pain=4
fatigue=4
muscle_pain=3
headache=2
rash=2
nausea=2
abdominal_pain=1
lymphadenopathy=1

parameters:
[boosting: gbdt]
[objective: binary]
[metric: binary_logloss]
[tree_learner: serial]
[device_type: cpu]
[data_sample_strategy: bagging]
[data: ]
[valid: ]
[num_iterations: 159]
[learning_rate: 0.968725]
[num_leaves: 40]
[num_threads: 8]
[seed: 0]
[deterministic: 0]
[force_col_wise: 0]
[force_row_wise: 0]
[histogram_pool_size: -1]
[max_depth: 18]
[min_data_in_leaf: 65]
[min_sum_hessian_in_leaf: 0.001]
[bagging_fraction: 0.496137]
[pos_bagging_fraction: 1]
[neg_bagging_fraction: 1]
[bagging_freq: 0]
[bagging_seed: 3]
[feature_fraction: 0.31301]
[feature_fraction_bynode: 1]
[feature_fraction_seed: 2]
[extra_trees: 0]
[extra_seed: 6]
[early_stopping_round: 0]
[early_stopping_min_delta: 0]
[first_metric_only: 0]
[max_delta_step: 0]
[lambda_l1: 9.49397]
[lambda_l2: 0]
[linear_lambda: 0]
[min_gain_to_split: 0]
[drop_rate: 0.1]
[max_drop: 50]
[skip_drop: 0.5]
[xgboost_dart_mode: 0]
[uniform_drop: 0]
[drop_seed: 4]
[top_rate: 0.2]
[other_rate: 0.1]
[min_data_per_group: 100]
[max_cat_threshold: 32]
[cat_l2: 10]
[cat_smooth: 10]
[max_cat_to_onehot: 4]
[top_k: 20]
[monotone_constraints: ]
[monotone_constraints_method: basic]
[monotone_penalty: 0]
[feature_contri: ]
[forcedsplits_filename: ]
[refit_decay_rate: 0.9]
[cegb_tradeoff: 1]
[cegb_penalty_split: 0]
[cegb_penalty_feature_lazy: ]
[cegb_penalty_feature_coupled: ]
[path_smooth: 0]
[interaction_constraints: ]
[verbosity: 1]
[saved_feature_importance_type: 0]
[use_quantized_grad: 0]
[num_grad_quant_bins: 4]
[quant_train_renew_leaf: 0]
[stochastic_rounding: 1]
[linear_tree: 0]
[max_bin: 255]
[max_bin_by_feature: ]
[min_data_in_bin: 3]
[bin_construct_sample_cnt: 200000]
[data_random_seed: 1]
[is_enable_sparse: 1]
[enable_bundle: 1]
[use_missing: 1]
[zero_as_missing: 0]
[feature_pre_filter: 1]
[pre_partition: 0]
[two_round: 0]
[header: 0]
[label_column: ]
[weight_column: ]
[group_column: ]
[ignore_column: ]
[categorical_feature: ]
[forcedbins_filename: ]
[precise_float_parser: 0]
[parser_config_file: ]
[objective_seed: 5]
[num_class: 1]
[is_unbalance: 0]
[scale_pos_weight: 1]
[sigmoid: 1]
[boost_from_average: 1]
[reg_sqrt: 0]
[alpha: 0.9]
[fair_c: 1]
[poisson_max_delta_step: 0.7]
[tweedie_variance_power: 1.5]
[lambdarank_truncation_level: 30]
[lambdarank_norm: 1]
[label_gain: ]
[lambdarank_position_bias_regularization: 0]
[eval_at: ]
[multi_error_top_k: 1]
[auc_mu_weights: ]
[num_machines: 1]
[local_listen_port: 12400]
[time_out: 120]
[machine_list_filename: ]
[machines: ]
[gpu_platform_id: -1]
[gpu_device_id: -1]
[gpu_use_dp: 0]
[num_gpu: 1]

end of parameters

pandas_categorical:[]
