tree
version=v4
num_class=1
num_tree_per_iteration=1
label_index=0
max_feature_idx=12
objective=binary sigmoid:1
feature_names=fever headache muscle_pain joint_pain rash nausea vomiting eye_pain abdominal_pain lymphadenopathy chills diarrhea fatigue
feature_infos=[0:1] [0:1] [0:1] [0:1] [0:1] [0:1] [0:1] [0:1] [0:1] [0:1] [0:1] [0:1] [0:1]
<<<<<<< HEAD
tree_sizes=1739 1651 1403 868 1413 1773 981 881 1210 992 344 776 573

Tree=0
num_leaves=15
num_cat=0
split_feature=9 0 11 0 7 11 5 7 10 5 5 7 11 10
split_gain=201.659 92.3929 78.5207 34.9974 47.8666 32.2738 5.89263 8.29699 4.02983 1.1017 1.00055 0.79013 0.608127 1.95927
threshold=1.0000000180025095e-35 1.0000000180025095e-35 1.0000000180025095e-35 1.0000000180025095e-35 1.0000000180025095e-35 1.0000000180025095e-35 1.0000000180025095e-35 1.0000000180025095e-35 1.0000000180025095e-35 1.0000000180025095e-35 1.0000000180025095e-35 1.0000000180025095e-35 1.0000000180025095e-35 1.0000000180025095e-35
decision_type=2 2 2 2 2 2 2 2 2 2 2 2 2 2
left_child=1 11 6 12 5 9 7 -3 -6 -5 -4 -1 -2 -14
right_child=3 2 10 4 8 -7 -8 -9 -10 -11 -12 -13 13 -15
leaf_value=0.017148089081417794 -0.17033501472713214 -1.0606893937148838 -0.26029674147991855 1.3083923456207791 -0.27962086760641147 0.028997771367223812 -0.93398968415860562 -1.5377597204992535 0.13010754848974682 0.85184810114169374 -0.013306477428991464 -0.15517355751181472 0.16288610002676229 -0.20694468997098298
leaf_weight=86.771888077259064 72.268937945365906 93.163018643856049 38.838408827781677 68.335934519767761 34.413779973983765 32.693090975284576 87.263513505458832 84.805386364459991 43.508850395679474 30.972401976585388 42.771412253379822 76.447754085063934 35.151218116283417 34.905405402183533
leaf_count=353 294 379 158 278 140 133 355 345 177 126 174 311 143 142
internal_value=-0.260297 -0.64583 -0.926739 0.29796 0.548644 0.902532 -1.18057 -1.29475 -0.0662035 1.17806 -0.116461 -0.0562305 -0.080198 -0.00429753
internal_weight=0 510.061 346.842 352.25 209.924 132.001 265.232 177.968 77.9226 99.3083 81.6098 163.22 142.326 70.0566
internal_count=3508 2075 1411 1433 854 537 1079 724 317 404 332 664 579 285
=======
tree_sizes=783 543 1041 835 458 347 657 527 567 352 611 560 349 351 529 541 353 351 358 358 358 358 356 357 358 356 358 356 336 358

Tree=0
num_leaves=6
num_cat=0
split_feature=12 11 3 1 3
split_gain=18.2304 21.4412 31.7551 2.8879 2.40477
threshold=1.0000000180025095e-35 1.0000000180025095e-35 1.0000000180025095e-35 1.0000000180025095e-35 1.0000000180025095e-35
decision_type=2 2 2 2 2
left_child=1 2 3 -1 -3
right_child=-2 4 -4 -5 -6
leaf_value=-0.36805610903976244 -0.060866729504946648 -0.24405351631204697 -0.82820529998529835 -0.16001483899084795 0.053841532979068907
leaf_weight=125.36448419094086 293.25456792116165 84.067948222160339 158.05757516622543 125.36448419094086 76.20194137096405
leaf_count=510 1193 342 643 510 310
internal_value=-0.260297 -0.364395 -0.488884 -0.260297 -0.0726788
internal_weight=0 569.056 408.787 250.729 160.27
internal_count=3508 2315 1663 1020 652
>>>>>>> b70eeab455cd5e9ef7f5f24a7ca9f122eca32ab3
is_linear=0
shrinkage=1


Tree=1
<<<<<<< HEAD
num_leaves=15
num_cat=0
split_feature=4 11 0 7 3 11 0 1 3 7 1 1 3 1
split_gain=14.2955 6.5777 5.69819 5.03802 13.8454 10.2247 4.70322 3.04782 3.0073 2.84697 1.68997 0.685967 0.292047 0.0252038
threshold=1.0000000180025095e-35 1.0000000180025095e-35 1.0000000180025095e-35 1.0000000180025095e-35 1.0000000180025095e-35 1.0000000180025095e-35 1.0000000180025095e-35 1.0000000180025095e-35 1.0000000180025095e-35 1.0000000180025095e-35 1.0000000180025095e-35 1.0000000180025095e-35 1.0000000180025095e-35 1.0000000180025095e-35
decision_type=2 2 2 2 2 2 2 2 2 2 2 2 2 2
left_child=3 2 11 4 7 6 -5 -1 10 -4 -3 -2 -7 -8
right_child=1 8 9 5 -6 12 13 -9 -10 -11 -12 -13 -14 -15
leaf_value=0 0.18242685592189462 0 0.25292483467047244 -0.076969535292445296 -0.3060211812715814 0 -0.6074941948564947 0.27774212482823196 0.14682839018751268 0.71090159369268158 -0.27200274456009421 0 0.099895530650988815 -0.38130819815041844
leaf_weight=79.95029915869236 39.068519234657288 38.244162544608116 37.604812055826187 40.23669221997261 101.78278784453869 37.193264186382294 48.041775360703468 80.190312594175339 70.073658347129822 34.419814497232437 38.011970430612564 40.048442780971527 38.161831140518188 47.572265282273293
leaf_count=384 157 154 200 162 464 150 277 386 282 161 153 161 154 263
internal_value=0 0.148406 0.288791 -0.119612 -0.0255125 -0.230642 -0.388775 0.145301 0 0.488403 -0.12839 0.0919466 0.0385599 -0.507473
internal_weight=0 297.471 151.142 473.129 261.923 211.206 135.851 160.141 146.33 72.0246 76.2561 79.117 75.3551 95.614
internal_count=3508 1268 679 2240 1234 1006 702 770 589 361 307 318 304 540
is_linear=0
shrinkage=0.959336


Tree=2
num_leaves=12
num_cat=0
split_feature=2 9 4 4 9 4 11 11 4 5 11
split_gain=1.15547 12.0997 33.5746 21.2459 6.99935 3.7298 3.01532 1.931 1.21405 2.30835 0.059971
threshold=1.0000000180025095e-35 1.0000000180025095e-35 1.0000000180025095e-35 1.0000000180025095e-35 1.0000000180025095e-35 1.0000000180025095e-35 1.0000000180025095e-35 1.0000000180025095e-35 1.0000000180025095e-35 1.0000000180025095e-35 1.0000000180025095e-35
decision_type=2 2 2 2 2 2 2 2 2 2 2
left_child=1 2 6 7 8 -6 -1 -3 9 -2 -5
right_child=4 3 -4 10 5 -7 -8 -9 -10 -11 -12
leaf_value=-0.43300163032921529 -0.1277504369835884 0.59049120008775202 0.39491279191882145 -0.21549180474103832 -0.034303381393670195 -0.38195912268208965 -0.090330311671436139 0.2395436614542239 0.16351614263866923 0.15994671176570116 -0.07024782648097376
leaf_weight=128.34834966808558 57.282969065010548 73.419465616345406 79.507628887891769 39.386395126581192 63.482996463775635 67.516577109694481 40.615661546587944 35.217241257429123 71.65375904738903 46.498376920819283 39.372987404465675
leaf_count=779 293 379 329 187 269 295 165 143 297 212 160
internal_value=0 0.0236252 -0.112066 0.209927 -0.0526389 -0.222619 -0.357713 0.487739 0.0674659 0 -0.158077
internal_weight=0 435.868 248.472 187.396 306.435 131 168.964 108.637 175.435 103.781 78.7594
internal_count=3508 2142 1273 869 1366 564 944 522 802 505 347
is_linear=0
shrinkage=0.959336
=======
num_leaves=4
num_cat=0
split_feature=0 11 11
split_gain=8.55625 1.55884 1.52753
threshold=1.0000000180025095e-35 1.0000000180025095e-35 1.0000000180025095e-35
decision_type=2 2 2
left_child=1 -1 -2
right_child=2 -3 -4
leaf_value=0.20672124683219983 -0.10686252826174475 0.025883577511846396 0
leaf_weight=155.37001137435436 391.50071781873703 147.11336752772331 151.69284920394421
leaf_count=652 1655 591 610
internal_value=0 0.133388 -0.0741928
internal_weight=0 302.483 543.194
internal_count=3508 1243 2265
is_linear=0
shrinkage=1


Tree=2
num_leaves=9
num_cat=0
split_feature=9 0 7 0 3 3 7 3
split_gain=153.913 61.8846 50.5283 39.4381 2.87458 1.72733 1.27818 1.39709
threshold=1.0000000180025095e-35 1.0000000180025095e-35 1.0000000180025095e-35 1.0000000180025095e-35 1.0000000180025095e-35 1.0000000180025095e-35 1.0000000180025095e-35 1.0000000180025095e-35
decision_type=2 2 2 2 2 2 2 2
left_child=3 -2 4 6 -3 -4 -1 -8
right_child=1 2 5 -5 -6 -7 7 -9
leaf_value=0.12123279226848825 0 1.3904180957246943 0 -0.54704071214741889 0.53909794005177281 0.26800898170547943 -0.17555992373383797 0.038678720247636897
leaf_weight=85.265112847089767 142.67943800985813 91.985328167676926 40.127326354384422 329.38726472854614 36.56867341697216 36.895923659205437 37.298806771636009 40.50043848156929
leaf_count=347 579 378 163 1411 158 155 150 167
internal_value=0 0.50895 0.849716 -0.351042 1.22019 0.132501 0.0305975 -0.0283293
internal_weight=0 348.257 205.577 492.452 128.554 77.0233 163.064 77.7992
internal_count=3508 1433 854 2075 536 318 664 317
is_linear=0
shrinkage=1
>>>>>>> b70eeab455cd5e9ef7f5f24a7ca9f122eca32ab3


Tree=3
num_leaves=7
num_cat=0
<<<<<<< HEAD
split_feature=8 4 11 4 11 11
split_gain=26.3941 13.7449 14.2966 5.9827 2.82484 0.428531
threshold=1.0000000180025095e-35 1.0000000180025095e-35 1.0000000180025095e-35 1.0000000180025095e-35 1.0000000180025095e-35 1.0000000180025095e-35
decision_type=2 2 2 2 2 2
left_child=3 2 -2 4 -1 -5
right_child=1 -3 -4 5 -6 -7
leaf_value=-0.31934014785841774 0.72627716666274278 0 0.09758674601736568 0.033642596593733372 -0.078702043156524557 -0.064916701717309663
leaf_weight=180.87242957949638 73.204019889235497 144.95539709925652 70.248826950788498 83.118613362312317 79.357868760824203 71.967475518584251
leaf_count=1225 403 608 287 364 325 296
internal_value=0 0.216155 0.42675 -0.16151 -0.250556 -0.00437687
internal_weight=0 288.408 143.453 415.316 260.23 155.086
internal_count=3508 1298 690 2210 1550 660
is_linear=0
shrinkage=0.959336


Tree=4
num_leaves=12
num_cat=0
split_feature=5 6 6 3 3 9 12 9 3 3 9
split_gain=0.794717 6.32707 5.14646 3.05495 1.85423 1.3709 0.847175 0.465453 0.299408 0.271698 0.15988
threshold=1.0000000180025095e-35 1.0000000180025095e-35 1.0000000180025095e-35 1.0000000180025095e-35 1.0000000180025095e-35 1.0000000180025095e-35 1.0000000180025095e-35 1.0000000180025095e-35 1.0000000180025095e-35 1.0000000180025095e-35 1.0000000180025095e-35
decision_type=2 2 2 2 2 2 2 2 2 2 2
left_child=2 8 9 5 6 -4 -3 -5 -2 -1 -11
right_child=1 4 3 7 -6 -7 -8 -9 -10 10 -12
leaf_value=-0.097806544957969935 0.15508344840036647 -0.3473485947949142 0.41241389819927082 0.089438885276702976 -0.039276997553089367 0.11863227561788116 -0.093127146997699792 -0.071169961567115705 0.035575510815188095 -0.049866238293458306 0.019141328483839006
leaf_weight=117.20961957424879 74.371961772441864 55.62602187693119 44.731339976191521 32.209059044718742 78.77043679356575 44.070431843400002 35.12116926908493 33.704361692070961 70.610785469412804 58.088038966059685 36.411385163664818
leaf_count=734 333 295 198 140 374 254 151 151 309 408 161
internal_value=0 -0.0370122 0.0286402 0.16388 -0.165645 0.280093 -0.262147 0 0.105134 -0.0645392 -0.0106127
internal_weight=0 314.5 366.424 154.715 169.518 88.8018 90.7472 65.9134 144.983 211.709 94.4994
internal_count=3508 1462 2046 743 820 452 446 291 642 1303 569
is_linear=0
shrinkage=0.959336


Tree=5
num_leaves=16
num_cat=0
split_feature=11 6 5 5 6 4 8 8 6 4 6 8 8 5 5
split_gain=0.119793 0.811088 2.04172 0.714186 3.6107 9.01855 10.3774 2.06565 2.64608 2.00484 0.620068 0.472056 0.244827 0.533608 0.205983
threshold=1.0000000180025095e-35 1.0000000180025095e-35 1.0000000180025095e-35 1.0000000180025095e-35 1.0000000180025095e-35 1.0000000180025095e-35 1.0000000180025095e-35 1.0000000180025095e-35 1.0000000180025095e-35 1.0000000180025095e-35 1.0000000180025095e-35 1.0000000180025095e-35 1.0000000180025095e-35 1.0000000180025095e-35 1.0000000180025095e-35
decision_type=2 2 2 2 2 2 2 2 2 2 2 2 2 2 2
left_child=3 12 -3 4 9 6 -6 8 -5 11 -9 -1 13 -2 -14
right_child=1 2 -4 7 5 -7 -8 10 -10 -11 -12 -13 14 -15 -16
leaf_value=-0.15837518527729436 0.072477460528629842 -0.18133694247745941 0.033365702872078379 0.034938816196264919 0.93537053578971696 -0.10025270459398807 0 0 -0.2699670890364283 0.11754173604454091 0.16171646989704613 0 0 -0.089084466137503607 0.12627003427966818
leaf_weight=74.510527715086937 37.265056177973747 75.584798857569695 72.543524831533432 38.285013228654861 24.135595381259918 37.351463362574577 17.221973411738873 34.900266997516155 55.286858923733234 43.955734118819237 38.683677524328232 18.561924915760756 34.307003036141396 37.215136289596558 34.231030181050301
leaf_count=705 155 312 300 189 142 169 120 160 338 196 182 106 141 152 141
internal_value=0 -0.0156817 -0.0681104 0.0100471 0.0488635 0.215092 0.528829 -0.032891 -0.132425 -0.0378847 0.0774154 -0.124147 0.0302524 0 0.0720922
internal_weight=0 291.147 148.128 382.893 215.737 78.709 41.3576 167.156 93.5719 137.028 73.5839 93.0725 143.018 74.4802 68.538
internal_count=3508 1201 612 2307 1438 431 262 869 527 1007 342 811 589 307 282
is_linear=0
shrinkage=0.959336


Tree=6
num_leaves=8
num_cat=0
split_feature=0 9 9 10 2 1 10
split_gain=1.30976 3.78306 1.26771 1.32606 1.14848 0.103695 0.0460675
threshold=1.0000000180025095e-35 1.0000000180025095e-35 1.0000000180025095e-35 1.0000000180025095e-35 1.0000000180025095e-35 1.0000000180025095e-35 1.0000000180025095e-35
decision_type=2 2 2 2 2 2 2
left_child=2 -2 3 -1 -4 -3 -6
right_child=1 5 4 -5 6 -7 -8
leaf_value=-0.0015001328463363959 0.12774011054867454 -0.019084010173678057 0.10725262674729308 -0.19516307833096269 -0.10123086876296784 -0.097173697795588793 0
leaf_weight=78.673198938369751 209.05195133760571 80.014812592417002 70.384891137480736 77.37006388604641 31.355008885264397 79.566578313708305 34.29855851829052
leaf_count=337 1411 415 299 327 132 439 148
internal_value=0 0.0408319 -0.0450041 -0.105192 0.0152379 -0.0655186 -0.0651794
internal_weight=0 368.633 292.082 156.043 136.038 159.581 65.6536
internal_count=3508 2265 1243 664 579 854 280
is_linear=0
shrinkage=0.959336


Tree=7
num_leaves=7
num_cat=0
split_feature=7 2 2 3 3 3
split_gain=0.560316 8.81181 8.26958 5.56453 4.70102 0.464022
threshold=1.0000000180025095e-35 1.0000000180025095e-35 1.0000000180025095e-35 1.0000000180025095e-35 1.0000000180025095e-35 1.0000000180025095e-35
decision_type=2 2 2 2 2 2
left_child=1 3 5 -1 -3 -2
right_child=2 4 -4 -5 -6 -7
leaf_value=0.2891856590200132 -0.24779592265615405 -0.29338468728483302 0.13161726203960381 -0.018895958864844579 0.025606618523406805 -0.1051722819990262
leaf_weight=117.71624308824539 83.246107079088688 90.086316458880901 138.68834363669157 87.038043774664402 68.618125438690186 85.117075119167566
leaf_count=720 489 412 644 468 310 465
internal_value=0 0.0179595 -0.036887 0.15238 -0.147923 -0.1828
internal_weight=0 363.459 307.052 204.754 158.704 168.363
internal_count=3508 1910 1598 1188 722 954
is_linear=0
shrinkage=0.959336


Tree=8
num_leaves=10
num_cat=0
split_feature=11 9 12 12 0 9 0 12 0
split_gain=0.305719 2.70058 8.90741 4.03916 2.7859 2.44231 1.33329 0.173402 0.00829537
threshold=1.0000000180025095e-35 1.0000000180025095e-35 1.0000000180025095e-35 1.0000000180025095e-35 1.0000000180025095e-35 1.0000000180025095e-35 1.0000000180025095e-35 1.0000000180025095e-35 1.0000000180025095e-35
decision_type=2 2 2 2 2 2 2 2 2
left_child=1 2 8 -3 -4 6 -2 -7 -1
right_child=5 3 4 -5 -6 7 -8 -9 -10
leaf_value=-0.1249264022348235 0.022559306239564182 0.002296905065329266 0.1104930761407221 -0.29562869425299559 0.55668138146201884 0.16345539826640329 -0.14548024272901658 0.049967953490238949 -0.047953340977123039
leaf_weight=45.084633477032185 73.758397281169891 89.454728066921234 35.895163595676422 67.83839550614357 31.681682340800762 70.08872452378273 79.675495266914368 64.214875563979149 105.43758179992437
leaf_count=203 306 558 155 312 177 294 332 269 902
internal_value=0 -0.0206139 0.0445561 -0.118586 0.337387 0.0206249 -0.0569007 0.118104 -0.0789592
internal_weight=0 375.392 218.099 157.293 67.5768 287.737 153.434 134.304 150.522
internal_count=3508 2307 1437 870 332 1201 638 563 1105
is_linear=0
shrinkage=0.959336


Tree=9
num_leaves=8
num_cat=0
split_feature=0 8 8 5 1 5 1
split_gain=0.0954366 5.75276 3.99414 1.48629 0.243373 0.227469 0.156605
threshold=1.0000000180025095e-35 1.0000000180025095e-35 1.0000000180025095e-35 1.0000000180025095e-35 1.0000000180025095e-35 1.0000000180025095e-35 1.0000000180025095e-35
decision_type=2 2 2 2 2 2 2
left_child=1 3 4 -1 -2 -3 -4
right_child=2 5 6 -5 -6 -7 -8
leaf_value=0.04592004822066395 -0.040402552868138666 -0.054929628595487827 0.052768709738386654 0.2610072935040163 -0.12698524571170386 -0.17428517151763109 0.15783037282854714
leaf_weight=84.335864305496216 113.56064566969872 70.51005095243454 74.540510814636946 66.036001428961754 117.04146495461464 67.370881319046021 71.759301211684942
leaf_count=371 797 298 356 289 753 285 359
internal_value=0 0.014907 -0.00794557 0.148335 -0.0895371 -0.121928 0.112481
internal_weight=0 288.253 376.902 150.372 230.602 137.881 146.3
internal_count=3508 1243 2265 660 1550 583 715
is_linear=0
shrinkage=0.959336


Tree=10
num_leaves=2
num_cat=0
split_feature=5
split_gain=0.000122412
threshold=1.0000000180025095e-35
decision_type=2
left_child=-1
right_child=-2
leaf_value=0 -0.00060818941405003338
leaf_weight=356.81448257341981 304.57125356420875
leaf_count=2046 1462
internal_value=0
internal_weight=0
internal_count=3508
is_linear=0
shrinkage=0.959336


Tree=11
num_leaves=6
num_cat=0
split_feature=10 5 5 12 12
split_gain=0.00176846 0.0306747 0.00305219 0.0233119 0.0163961
threshold=1.0000000180025095e-35 1.0000000180025095e-35 1.0000000180025095e-35 1.0000000180025095e-35 1.0000000180025095e-35
decision_type=2 2 2 2 2
left_child=1 -1 3 -2 -4
right_child=2 -3 4 -5 -6
leaf_value=0.0014949989130749201 0.0069186098960614863 -0.014582225426398511 0 -0.014662961744270852 0.016344865630697425
leaf_weight=165.88507502526045 117.24502665549517 135.39708936586976 99.563133779913187 73.684380892664194 69.605023309588432
leaf_count=916 800 613 550 330 299
internal_value=0 -0.00175789 0.0013908 0 0.00455218
internal_weight=0 301.282 360.098 190.929 169.168
internal_count=3508 1529 1979 1130 849
is_linear=0
shrinkage=0.959336


Tree=12
num_leaves=4
num_cat=0
split_feature=4 9 9
split_gain=0.00103592 0.0560677 0.0126455
=======
split_feature=3 2 2 12 11 12
split_gain=1.55248 5.39219 1.88049 3.47776 1.71914 0.0910798
threshold=1.0000000180025095e-35 1.0000000180025095e-35 1.0000000180025095e-35 1.0000000180025095e-35 1.0000000180025095e-35 1.0000000180025095e-35
decision_type=2 2 2 2 2 2
left_child=1 -1 5 -4 -3 -2
right_child=2 4 3 -5 -6 -7
leaf_value=0.06285326955461526 -0.01214700919208145 -0.24162371636978883 0.29238652291814593 0 0 0.029057561928896546
leaf_weight=261.40554960072041 120.51177735626698 98.027190774679184 73.498770520091057 64.663990899920464 74.11799144744873 77.516720846295357
leaf_count=1209 611 437 342 268 319 322
internal_value=0 -0.0176518 0.0682218 0.154393 -0.157487 0
internal_weight=0 433.551 336.191 138.163 172.145 198.028
internal_count=3508 1965 1543 610 756 933
is_linear=0
shrinkage=1


Tree=4
num_leaves=3
num_cat=0
split_feature=7 3
split_gain=4.30061 0.811733
threshold=1.0000000180025095e-35 1.0000000180025095e-35
decision_type=2 2
left_child=-1 -2
right_child=1 -3
leaf_value=0.069028729081933124 -0.12546001602934989 -0.0037881100717426291
leaf_weight=409.80643129348755 190.26693093776703 170.26517881453037
leaf_count=1901 834 773
internal_value=0 -0.0791843
internal_weight=0 360.532
internal_count=3508 1607
is_linear=0
shrinkage=1


Tree=5
num_leaves=2
num_cat=0
split_feature=8
split_gain=43.9175
threshold=1.0000000180025095e-35
decision_type=2
left_child=-1
right_child=-2
leaf_value=-0.19490682619264296 0.29123963018631949
leaf_weight=469.44180265069008 296.07611824572086
leaf_count=2210 1298
internal_value=0
internal_weight=0
internal_count=3508
is_linear=0
shrinkage=1


Tree=6
num_leaves=5
num_cat=0
split_feature=4 7 3 7
split_gain=8.08548 4.83206 2.49505 2.14148
threshold=1.0000000180025095e-35 1.0000000180025095e-35 1.0000000180025095e-35 1.0000000180025095e-35
decision_type=2 2 2 2
left_child=1 2 -1 -2
right_child=3 -3 -4 -5
leaf_value=0.087260966676033197 0.016471534539442969 -0.19322987047867504 -0.11150027240122416 0.2190170185499983
leaf_weight=155.11337181925774 153.19210155308247 208.4123677611351 92.930211767554283 136.73003110289574
leaf_count=767 678 1017 456 590
internal_value=0 -0.0835942 0 0.127484
internal_weight=0 456.456 248.044 289.922
internal_count=3508 2240 1223 1268
is_linear=0
shrinkage=1


Tree=7
num_leaves=4
num_cat=0
split_feature=11 5 12
split_gain=1.16314 0.718697 0.269447
threshold=1.0000000180025095e-35 1.0000000180025095e-35 1.0000000180025095e-35
decision_type=2 2 2
left_child=2 -2 -1
right_child=1 -3 -4
leaf_value=0.050270218999669054 -0.09527848715340595 0 0
leaf_weight=309.43671303987503 140.72364018112421 136.65225991606712 148.33897194266319
leaf_count=1663 608 593 644
internal_value=0 -0.0470154 0.033816
internal_weight=0 277.376 457.776
internal_count=3508 1201 2307
is_linear=0
shrinkage=1


Tree=8
num_leaves=4
num_cat=0
split_feature=9 10 10
split_gain=0.0982986 2.93813 1.31807
threshold=1.0000000180025095e-35 1.0000000180025095e-35 1.0000000180025095e-35
decision_type=2 2 2
left_child=2 -2 -1
right_child=1 -3 -4
leaf_value=0.039654954798466646 -0.080730173093997076 0.10474252940196291 -0.066206108320154944
leaf_weight=192.09638617187738 136.61748957633972 179.23983310163021 230.44733049720526
leaf_count=927 602 831 1148
internal_value=0 0.013276 -0.00978731
internal_weight=0 315.857 422.544
internal_count=3508 1433 2075
is_linear=0
shrinkage=1


Tree=9
num_leaves=2
num_cat=0
split_feature=5
split_gain=0.012926
threshold=1.0000000180025095e-35
decision_type=2
left_child=-1
right_child=-2
leaf_value=-0.0036611627987431991 0.0047221391080748392
leaf_weight=418.03609094023705 315.72088127583265
leaf_count=2046 1462
internal_value=0
internal_weight=0
internal_count=3508
is_linear=0
shrinkage=1


Tree=10
num_leaves=5
num_cat=0
split_feature=0 5 3 5
split_gain=0.442433 0.552666 0.305643 0.17744
threshold=1.0000000180025095e-35 1.0000000180025095e-35 1.0000000180025095e-35 1.0000000180025095e-35
decision_type=2 2 2 2
left_child=3 -2 -3 -1
right_child=1 2 -4 -5
leaf_value=0 0 0 0.10804666063343256 -0.054829047687525653
leaf_weight=160.68569898605347 257.15395739674568 96.688712671399117 81.130740754306316 138.01608340442181
leaf_count=669 1377 492 396 574
internal_value=0 0.020226 0.062858 -0.02919
internal_weight=0 434.973 177.819 298.702
internal_count=3508 2265 888 1243
is_linear=0
shrinkage=1


Tree=11
num_leaves=4
num_cat=0
split_feature=4 12 12
split_gain=0.280306 11.33 5.82483
threshold=1.0000000180025095e-35 1.0000000180025095e-35 1.0000000180025095e-35
decision_type=2 2 2
left_child=2 -2 -1
right_child=1 -3 -4
leaf_value=-0.1017118202501488 0.21173405698168826 -0.16961234743490067 0.13609571921699834
leaf_weight=303.06738781929016 155.64555971324444 136.05786614865065 140.2185348495841
leaf_count=1625 690 578 615
internal_value=0 0.0219452 -0.0173623
internal_weight=0 291.703 443.286
internal_count=3508 1268 2240
is_linear=0
shrinkage=1


Tree=12
num_leaves=2
num_cat=0
split_feature=6
split_gain=1.47591
threshold=1.0000000180025095e-35
decision_type=2
left_child=-1
right_child=-2
leaf_value=-0.040940588319944952 0.048409925449383585
leaf_weight=392.7927310615778 335.27799028903246
leaf_count=1945 1563
internal_value=0
internal_weight=0
internal_count=3508
is_linear=0
shrinkage=1


Tree=13
num_leaves=2
num_cat=0
split_feature=11
split_gain=0.250265
threshold=1.0000000180025095e-35
decision_type=2
left_child=-1
right_child=-2
leaf_value=0.014390000971146809 -0.023430677969261762
leaf_weight=451.6253707036376 274.61831536889076
leaf_count=2307 1201
internal_value=0
internal_weight=0
internal_count=3508
is_linear=0
shrinkage=1


Tree=14
num_leaves=4
num_cat=0
split_feature=2 11 11
split_gain=0.461685 0.661445 0.199144
>>>>>>> b70eeab455cd5e9ef7f5f24a7ca9f122eca32ab3
threshold=1.0000000180025095e-35 1.0000000180025095e-35 1.0000000180025095e-35
decision_type=2 2 2
left_child=2 -2 -1
right_child=1 -3 -4
<<<<<<< HEAD
leaf_value=0.0015693680664090304 -0.0060242877277902592 0.01793542573477952 -0.0086905597640311253
leaf_weight=218.51988543197513 149.39009208977222 146.51936058700085 146.96622074022889
leaf_count=1449 626 642 791
internal_value=0 0.00179496 0
internal_weight=0 295.909 365.486
internal_count=3508 1268 2240
is_linear=0
shrinkage=0.959336
=======
leaf_value=0 0 -0.081676965468534188 0.050784097692394503
leaf_weight=286.96817114949226 165.62742592394352 132.25242491066456 142.23007240146399
leaf_count=1523 784 582 619
internal_value=0 -0.0299125 0.020743
internal_weight=0 297.88 429.198
internal_count=3508 1366 2142
is_linear=0
shrinkage=1


Tree=15
num_leaves=4
num_cat=0
split_feature=3 9 9
split_gain=0.0132253 0.326723 0.106558
threshold=1.0000000180025095e-35 1.0000000180025095e-35 1.0000000180025095e-35
decision_type=2 2 2
left_child=2 -2 -1
right_child=1 -3 -4
leaf_value=0 0.019145004056474547 -0.041616469862520496 0.025777070779143804
leaf_weight=230.37669418752193 184.04699666798115 140.11057531833649 172.36061485111713
leaf_count=1128 947 596 837
internal_value=0 0 0.00567502
internal_weight=0 324.158 402.737
internal_count=3508 1543 1965
is_linear=0
shrinkage=1


Tree=16
num_leaves=2
num_cat=0
split_feature=6
split_gain=0.0157723
threshold=1.0000000180025095e-35
decision_type=2
left_child=-1
right_child=-2
leaf_value=-0.002101529316487394 0.0063830591419288454
leaf_weight=391.44435395300388 335.91316112875938
leaf_count=1945 1563
internal_value=0
internal_weight=0
internal_count=3508
is_linear=0
shrinkage=1


Tree=17
num_leaves=2
num_cat=0
split_feature=0
split_gain=0.158115
threshold=1.0000000180025095e-35
decision_type=2
left_child=-1
right_child=-2
leaf_value=-0.017446627629852565 0.012209127239497417
leaf_weight=296.89818520843983 430.39982667565346
leaf_count=1243 2265
internal_value=0
internal_weight=0
internal_count=3508
is_linear=0
shrinkage=1


Tree=18
num_leaves=2
num_cat=0
split_feature=0
split_gain=8.19474e-05
threshold=1.0000000180025095e-35
decision_type=2
left_child=-1
right_child=-2
leaf_value=-0.00045463471540387799 0.00020776970873564044
leaf_weight=296.83282771706581 431.27347276359797
leaf_count=1243 2265
internal_value=0
internal_weight=0
internal_count=3508
is_linear=0
shrinkage=1


Tree=19
num_leaves=2
num_cat=0
split_feature=0
split_gain=4.86247e-08
threshold=1.0000000180025095e-35
decision_type=2
left_child=-1
right_child=-2
leaf_value=-1.1805441832609417e-05 3.7430042165645852e-06
leaf_weight=296.83059492707253 431.28822458535433
leaf_count=1243 2265
internal_value=0
internal_weight=0
internal_count=3508
is_linear=0
shrinkage=1


Tree=20
num_leaves=2
num_cat=0
split_feature=6
split_gain=0.000581033
threshold=1.0000000180025095e-35
decision_type=2
left_child=-1
right_child=-2
leaf_value=-0.00081990198731903571 0.00095258987661217228
leaf_weight=391.94082562625408 336.17820141464472
leaf_count=1945 1563
internal_value=0
internal_weight=0
internal_count=3508
is_linear=0
shrinkage=1


Tree=21
num_leaves=2
num_cat=0
split_feature=6
split_gain=2.70866e-07
threshold=1.0000000180025095e-35
decision_type=2
left_child=-1
right_child=-2
leaf_value=-1.6284666545668061e-05 2.1887293544663883e-05
leaf_weight=391.88817459344864 336.18935563415289
leaf_count=1945 1563
internal_value=0
internal_weight=0
internal_count=3508
is_linear=0
shrinkage=1


Tree=22
num_leaves=2
num_cat=0
split_feature=0
split_gain=1.73571e-06
threshold=1.0000000180025095e-35
decision_type=2
left_child=-1
right_child=-2
leaf_value=-5.7923457369545036e-05 4.0301221642346165e-05
leaf_weight=296.82449166476727 431.252247646451
leaf_count=1243 2265
internal_value=0
internal_weight=0
internal_count=3508
is_linear=0
shrinkage=1


Tree=23
num_leaves=2
num_cat=0
split_feature=6
split_gain=6.6454e-09
threshold=1.0000000180025095e-35
decision_type=2
left_child=-1
right_child=-2
leaf_value=-2.9598792573009553e-06 3.0221385802625286e-06
leaf_weight=391.88912682235241 336.19018730521202
leaf_count=1945 1563
internal_value=0
internal_weight=0
internal_count=3508
is_linear=0
shrinkage=1


Tree=24
num_leaves=2
num_cat=0
split_feature=0
split_gain=1.17905e-09
threshold=1.0000000180025095e-35
decision_type=2
left_child=-1
right_child=-2
leaf_value=-1.5077447816884755e-06 1.0522913742156653e-06
leaf_weight=296.82418443262577 431.25497371703386
leaf_count=1243 2265
internal_value=0
internal_weight=0
internal_count=3508
is_linear=0
shrinkage=1


Tree=25
num_leaves=2
num_cat=0
split_feature=6
split_gain=1.25834e-11
threshold=1.0000000180025095e-35
decision_type=2
left_child=-1
right_child=-2
leaf_value=-1.249196065286801e-07 1.3578619417992514e-07
leaf_weight=391.8889878615737 336.19023735076189
leaf_count=1945 1563
internal_value=0
internal_weight=0
internal_count=3508
is_linear=0
shrinkage=1


Tree=26
num_leaves=2
num_cat=0
split_feature=6
split_gain=2.53908e-14
threshold=1.0000000180025095e-35
decision_type=2
left_child=-1
right_child=-2
leaf_value=-6.6945249480000788e-09 4.6602244803665303e-09
leaf_weight=391.88898172974586 336.19023873656988
leaf_count=1945 1563
internal_value=0
internal_weight=0
internal_count=3508
is_linear=0
shrinkage=1


Tree=27
num_leaves=2
num_cat=0
split_feature=0
split_gain=9.77003e-13
threshold=1.0000000180025095e-35
decision_type=2
left_child=-1
right_child=-2
leaf_value=-4.352538455498329e-08 3.0168146514021464e-08
leaf_weight=296.8241762816906 431.25504344701767
leaf_count=1243 2265
internal_value=0
internal_weight=0
internal_count=3508
is_linear=0
shrinkage=1


Tree=28
num_leaves=2
num_cat=0
split_feature=6
split_gain=1.34268e-15
threshold=1.0000000180025095e-35
decision_type=2
left_child=-1
right_child=-2
leaf_value=0 1.9753466396420443e-09
leaf_weight=391.88898158818483 336.19023955613375
leaf_count=1945 1563
internal_value=0
internal_weight=0
internal_count=3508
is_linear=0
shrinkage=1


Tree=29
num_leaves=2
num_cat=0
split_feature=0
split_gain=5.79791e-15
threshold=1.0000000180025095e-35
decision_type=2
left_child=-1
right_child=-2
leaf_value=-2.9395532382898101e-09 2.6844232548801099e-09
leaf_weight=296.82417577505112 431.25504537671804
leaf_count=1243 2265
internal_value=0
internal_weight=0
internal_count=3508
is_linear=0
shrinkage=1
>>>>>>> b70eeab455cd5e9ef7f5f24a7ca9f122eca32ab3


end of trees

feature_importances:
<<<<<<< HEAD
nausea=14
diarrhea=13
lymphadenopathy=12
joint_pain=10
rash=10
fever=9
headache=7
abdominal_pain=7
vomiting=6
eye_pain=6
fatigue=6
chills=5
muscle_pain=4
=======
fever=11
joint_pain=10
vomiting=8
diarrhea=8
fatigue=6
eye_pain=5
nausea=4
lymphadenopathy=4
muscle_pain=3
rash=2
chills=2
headache=1
abdominal_pain=1
>>>>>>> b70eeab455cd5e9ef7f5f24a7ca9f122eca32ab3

parameters:
[boosting: gbdt]
[objective: binary]
[metric: binary_logloss]
[tree_learner: serial]
[device_type: cpu]
[data_sample_strategy: bagging]
[data: ]
[valid: ]
<<<<<<< HEAD
[num_iterations: 162]
[learning_rate: 0.959336]
[num_leaves: 25]
[num_threads: 6]
=======
[num_iterations: 204]
[learning_rate: 1]
[num_leaves: 44]
[num_threads: 8]
>>>>>>> b70eeab455cd5e9ef7f5f24a7ca9f122eca32ab3
[seed: 0]
[deterministic: 0]
[force_col_wise: 0]
[force_row_wise: 0]
[histogram_pool_size: -1]
<<<<<<< HEAD
[max_depth: 16]
[min_data_in_leaf: 98]
[min_sum_hessian_in_leaf: 0.001]
[bagging_fraction: 0.610901]
=======
[max_depth: 17]
[min_data_in_leaf: 84]
[min_sum_hessian_in_leaf: 0.001]
[bagging_fraction: 1]
>>>>>>> b70eeab455cd5e9ef7f5f24a7ca9f122eca32ab3
[pos_bagging_fraction: 1]
[neg_bagging_fraction: 1]
[bagging_freq: 0]
[bagging_seed: 3]
<<<<<<< HEAD
[feature_fraction: 0.429552]
=======
[feature_fraction: 0.3]
>>>>>>> b70eeab455cd5e9ef7f5f24a7ca9f122eca32ab3
[feature_fraction_bynode: 1]
[feature_fraction_seed: 2]
[extra_trees: 0]
[extra_seed: 6]
[early_stopping_round: 0]
[early_stopping_min_delta: 0]
[first_metric_only: 0]
[max_delta_step: 0]
<<<<<<< HEAD
[lambda_l1: 1.2475]
[lambda_l2: 0]
=======
[lambda_l1: 3.63651]
[lambda_l2: 7.91182]
>>>>>>> b70eeab455cd5e9ef7f5f24a7ca9f122eca32ab3
[linear_lambda: 0]
[min_gain_to_split: 0]
[drop_rate: 0.1]
[max_drop: 50]
[skip_drop: 0.5]
[xgboost_dart_mode: 0]
[uniform_drop: 0]
[drop_seed: 4]
[top_rate: 0.2]
[other_rate: 0.1]
[min_data_per_group: 100]
[max_cat_threshold: 32]
[cat_l2: 10]
[cat_smooth: 10]
[max_cat_to_onehot: 4]
[top_k: 20]
[monotone_constraints: ]
[monotone_constraints_method: basic]
[monotone_penalty: 0]
[feature_contri: ]
[forcedsplits_filename: ]
[refit_decay_rate: 0.9]
[cegb_tradeoff: 1]
[cegb_penalty_split: 0]
[cegb_penalty_feature_lazy: ]
[cegb_penalty_feature_coupled: ]
[path_smooth: 0]
[interaction_constraints: ]
[verbosity: 1]
[saved_feature_importance_type: 0]
[use_quantized_grad: 0]
[num_grad_quant_bins: 4]
[quant_train_renew_leaf: 0]
[stochastic_rounding: 1]
[linear_tree: 0]
[max_bin: 255]
[max_bin_by_feature: ]
[min_data_in_bin: 3]
[bin_construct_sample_cnt: 200000]
[data_random_seed: 1]
[is_enable_sparse: 1]
[enable_bundle: 1]
[use_missing: 1]
[zero_as_missing: 0]
[feature_pre_filter: 1]
[pre_partition: 0]
[two_round: 0]
[header: 0]
[label_column: ]
[weight_column: ]
[group_column: ]
[ignore_column: ]
[categorical_feature: ]
[forcedbins_filename: ]
[precise_float_parser: 0]
[parser_config_file: ]
[objective_seed: 5]
[num_class: 1]
[is_unbalance: 0]
[scale_pos_weight: 1]
[sigmoid: 1]
[boost_from_average: 1]
[reg_sqrt: 0]
[alpha: 0.9]
[fair_c: 1]
[poisson_max_delta_step: 0.7]
[tweedie_variance_power: 1.5]
[lambdarank_truncation_level: 30]
[lambdarank_norm: 1]
[label_gain: ]
[lambdarank_position_bias_regularization: 0]
[eval_at: ]
[multi_error_top_k: 1]
[auc_mu_weights: ]
[num_machines: 1]
[local_listen_port: 12400]
[time_out: 120]
[machine_list_filename: ]
[machines: ]
[gpu_platform_id: -1]
[gpu_device_id: -1]
[gpu_use_dp: 0]
[num_gpu: 1]

end of parameters

pandas_categorical:[]
